digraph Tree {
node [shape=box, fontname="helvetica"] ;
edge [fontname="helvetica"] ;
0 [label="wind_speed <= 3.643\nsquared_error = 31.142\nsamples = 38\nvalue = 15.647"] ;
1 [label="wind_speed <= 3.269\nsquared_error = 28.716\nsamples = 25\nvalue = 17.822"] ;
0 -> 1 [labeldistance=2.5, labelangle=45, headlabel="True"] ;
3 [label="squared_error = 26.786\nsamples = 5\nvalue = 21.99"] ;
1 -> 3 ;
4 [label="wind_speed <= 3.496\nsquared_error = 23.768\nsamples = 20\nvalue = 16.78"] ;
1 -> 4 ;
5 [label="wind_speed <= 3.459\nsquared_error = 15.195\nsamples = 8\nvalue = 13.192"] ;
4 -> 5 ;
13 [label="squared_error = 9.253\nsamples = 5\nvalue = 12.591"] ;
5 -> 13 ;
14 [label="squared_error = 23.488\nsamples = 3\nvalue = 14.196"] ;
5 -> 14 ;
6 [label="wind_speed <= 3.523\nsquared_error = 15.186\nsamples = 12\nvalue = 19.171"] ;
4 -> 6 ;
9 [label="squared_error = 12.042\nsamples = 3\nvalue = 16.84"] ;
6 -> 9 ;
10 [label="squared_error = 13.82\nsamples = 9\nvalue = 19.948"] ;
6 -> 10 ;
2 [label="wind_speed <= 3.808\nsquared_error = 9.212\nsamples = 13\nvalue = 11.464"] ;
0 -> 2 [labeldistance=2.5, labelangle=-45, headlabel="False"] ;
7 [label="wind_speed <= 3.699\nsquared_error = 5.143\nsamples = 9\nvalue = 12.621"] ;
2 -> 7 ;
11 [label="squared_error = 1.574\nsamples = 3\nvalue = 11.188"] ;
7 -> 11 ;
12 [label="squared_error = 5.388\nsamples = 6\nvalue = 13.337"] ;
7 -> 12 ;
8 [label="squared_error = 8.584\nsamples = 4\nvalue = 8.861"] ;
2 -> 8 ;
}